Language model created by QuickLM on Sat Jul 19 20:09:20 EDT 2014
Copyright (c) 1996-2010 Carnegie Mellon University and Alexander I. Rudnicky

The model is in standard ARPA format, designed by Doug Paul while he was at MITRE.

The code that was used to produce this language model is available in Open Source.
Please visit http://www.speech.cs.cmu.edu/tools/ for more information

The (fixed) discount mass is 0.5. The backoffs are computed using the ratio method.
This model based on a corpus of 5 sentences and 11 words

\data\
ngram 1=11
ngram 2=14
ngram 3=13

\1-grams:
-0.9823 </s> -0.3010
-0.9823 <s> -0.2533
-0.9823 E_TWO -0.2533
-1.6812 FIND -0.2919
-1.6812 GO -0.2919
-1.6812 HELL -0.2533
-1.6812 JOKE -0.2533
-1.6812 NEWS -0.2533
-1.6812 PEOPLE -0.2533
-1.6812 STOP -0.2533
-1.3802 TELL -0.2825

\2-grams:
-0.3010 <s> E_TWO 0.0000
-1.0000 E_TWO FIND 0.0000
-1.0000 E_TWO GO 0.0000
-1.0000 E_TWO STOP 0.0000
-0.6990 E_TWO TELL 0.0000
-0.3010 FIND PEOPLE 0.0000
-0.3010 GO HELL 0.0000
-0.3010 HELL </s> -0.3010
-0.3010 JOKE </s> -0.3010
-0.3010 NEWS </s> -0.3010
-0.3010 PEOPLE </s> -0.3010
-0.3010 STOP </s> -0.3010
-0.6021 TELL JOKE 0.0000
-0.6021 TELL NEWS 0.0000

\3-grams:
-1.0000 <s> E_TWO FIND
-1.0000 <s> E_TWO GO
-1.0000 <s> E_TWO STOP
-0.6990 <s> E_TWO TELL
-0.3010 E_TWO FIND PEOPLE
-0.3010 E_TWO GO HELL
-0.3010 E_TWO STOP </s>
-0.6021 E_TWO TELL JOKE
-0.6021 E_TWO TELL NEWS
-0.3010 FIND PEOPLE </s>
-0.3010 GO HELL </s>
-0.3010 TELL JOKE </s>
-0.3010 TELL NEWS </s>

\end\
