Language model created by QuickLM on Sun Jul 27 07:56:33 EDT 2014
Copyright (c) 1996-2010 Carnegie Mellon University and Alexander I. Rudnicky

The model is in standard ARPA format, designed by Doug Paul while he was at MITRE.

The code that was used to produce this language model is available in Open Source.
Please visit http://www.speech.cs.cmu.edu/tools/ for more information

The (fixed) discount mass is 0.5. The backoffs are computed using the ratio method.
This model based on a corpus of 10 sentences and 19 words

\data\
ngram 1=19
ngram 2=28
ngram 3=28

\1-grams:
-1.0086 </s> -0.3010
-1.0086 <s> -0.2562
-2.0086 ABORT -0.2562
-2.0086 ARE -0.2881
-2.0086 DO -0.2881
-1.0086 E_TWO -0.2562
-2.0086 FEEL -0.2562
-2.0086 FIND -0.2968
-2.0086 GO -0.2968
-2.0086 HELL -0.2562
-2.0086 HELLO -0.2562
-1.7076 HOW -0.2924
-2.0086 JOKE -0.2562
-2.0086 LAW -0.2562
-2.0086 NEWS -0.2562
-2.0086 PEOPLE -0.2562
-1.5315 TELL -0.2881
-2.0086 THANK -0.2881
-1.5315 YOU -0.2515

\2-grams:
-0.3010 <s> E_TWO 0.0000
-0.3010 ABORT </s> -0.3010
-0.3010 ARE YOU -0.1249
-0.3010 DO YOU -0.2218
-1.3010 E_TWO ABORT 0.0000
-1.3010 E_TWO FIND 0.0000
-1.3010 E_TWO GO 0.0000
-1.3010 E_TWO HELLO 0.0000
-1.0000 E_TWO HOW 0.0000
-0.8239 E_TWO TELL 0.0000
-1.3010 E_TWO THANK 0.0000
-0.3010 FEEL </s> -0.3010
-0.3010 FIND PEOPLE 0.0000
-0.3010 GO HELL 0.0000
-0.3010 HELL </s> -0.3010
-0.3010 HELLO </s> -0.3010
-0.6021 HOW ARE 0.0000
-0.6021 HOW DO 0.0000
-0.3010 JOKE </s> -0.3010
-0.3010 LAW </s> -0.3010
-0.3010 NEWS </s> -0.3010
-0.3010 PEOPLE </s> -0.3010
-0.7782 TELL JOKE 0.0000
-0.7782 TELL LAW 0.0000
-0.7782 TELL NEWS 0.0000
-0.3010 THANK YOU -0.1249
-0.4771 YOU </s> -0.3010
-0.7782 YOU FEEL 0.0000

\3-grams:
-1.3010 <s> E_TWO ABORT
-1.3010 <s> E_TWO FIND
-1.3010 <s> E_TWO GO
-1.3010 <s> E_TWO HELLO
-1.0000 <s> E_TWO HOW
-0.8239 <s> E_TWO TELL
-1.3010 <s> E_TWO THANK
-0.3010 ARE YOU </s>
-0.3010 DO YOU FEEL
-0.3010 E_TWO ABORT </s>
-0.3010 E_TWO FIND PEOPLE
-0.3010 E_TWO GO HELL
-0.3010 E_TWO HELLO </s>
-0.6021 E_TWO HOW ARE
-0.6021 E_TWO HOW DO
-0.7782 E_TWO TELL JOKE
-0.7782 E_TWO TELL LAW
-0.7782 E_TWO TELL NEWS
-0.3010 E_TWO THANK YOU
-0.3010 FIND PEOPLE </s>
-0.3010 GO HELL </s>
-0.3010 HOW ARE YOU
-0.3010 HOW DO YOU
-0.3010 TELL JOKE </s>
-0.3010 TELL LAW </s>
-0.3010 TELL NEWS </s>
-0.3010 THANK YOU </s>
-0.3010 YOU FEEL </s>

\end\
